{"num_clients": 5.0, "Sum of Instances in Clients": 5760.0, "Max. Of Instances in Clients": 1152.0, "Min. Of Instances in Clients": 1152.0, "Stddev of Instances in Clients": 0.0, "Average Dataset Missing Values %": 4.861111111111112, "Min Dataset Missing Values %": 4.600694444444445, "Max Dataset Missing Values %": 5.208333333333334, "Stddev Dataset Missing Values %": 0.2515864018435667, "Average Target Missing Values %": 4.861111111111112, "Min Target Missing Values %": 4.600694444444445, "Max Target Missing Values %": 5.208333333333334, "Stddev Target Missing Values %": 0.2515864018435667, "No. Of Features": 4.0, "No. Of Numerical Features": 4.0, "No. Of Categorical Features": 0.0, "Sampling Rate": 1.0, "Average Skewness of Numerical Features": 1.4827180246075184, "Minimum Skewness of Numerical Features": 0.0001866042605029, "Maximum Skewness of Numerical Features": 4.5124305117769525, "Stddev Skewness of Numerical Features": 0.8883329683228275, "Average Kurtosis of Numerical Features": 7.860322511415873, "Minimum Kurtosis of Numerical Features": 1.0629223053727377, "Maximum Kurtosis of Numerical Features": 23.362512105880263, "Stddev Kurtosis of Numerical Features": 5.079231098242041, "Avg No. of Symbols per Categorical Features": 0.0, "Min. No. Of Symbols per Categorical Features": 0.0, "Max. No. Of Symbols per Categorical Features": 0.0, "Stddev No. Of Symbols per Categorical Features": 0.0, "Avg No. Of Stationary Features": 3.0, "Min No. Of Stationary Features": 2.0, "Max No. Of Stationary Features": 4.0, "Stddev No. Of Stationary Features": 0.6324555320336759, "Avg No. Of Stationary Features after 1st order": 3.0, "Min No. Of Stationary Features after 1st order": 3.0, "Max No. Of Stationary Features after 1st order": 3.0, "Stddev No. Of Stationary Features after 1st order": 0.0, "Avg No. Of Stationary Features after 2nd order": 4.0, "Min No. Of Stationary Features after 2nd order": 4.0, "Max No. Of Stationary Features after 2nd order": 4.0, "Stddev No. Of Stationary Features after 2nd order": 0.0, "Avg No. Of Significant Lags in Target": 2.0, "Min No. Of Significant Lags in Target": 2.0, "Max No. Of Significant Lags in Target": 2.0, "Stddev No. Of Significant Lags in Target": 0.0, "Avg No. Of Insignificant Lags in Target": 0.0, "Max No. Of Insignificant Lags in Target": 0.0, "Min No. Of Insignificant Lags in Target": 0.0, "Stddev No. Of Insignificant Lags in Target": 0.0, "Avg. No. Of Seasonality Components in Target": 0.0, "Max No. Of Seasonality Components in Target": 0.0, "Min No. Of Seasonality Components in Target": 0.0, "Stddev No. Of Seasonality Components in Target": 0.0, "Average Fractal Dimensionality Across Clients of Target": 0.0213452978235749, "Maximum Period of Seasonality Components in Target Across Clients": 0.0, "Minimum Period of Seasonality Components in Target Across Clients": 0.0, "Entropy of Target Stationarity": 0.5004024235381879}

Parameters(tensors=[b'XGBRegressor', b'{"n_estimators": 7, "max_depth": 4, "learning_rate": 0.55, "reg_lambda": 5.4, "subsample": 0.55}',
  [b'{"learner": {"attributes": {}, "feature_names": ["Target_trend", "lag1_Target"], "feature_types": ["float", "float"], "gradient_booster": {"model": {"gbtree_model_param": {"num_parallel_tree": "1", "num_trees": "26"}, "iteration_indptr": [0, 1, 2, 3, 4, 5, 6, 7, 8, 9, 10, 11, 12, 13, 14, 15, 16, 17, 18, 19, 20, 21, 22, 23, 24, 25, 26], "tree_info": [0, 0, 0, 0, 0, 0, 0, 0, 0, 0, 0, 0, 0, 0, 0, 0, 0, 0, 0, 0, 0, 0, 0, 0, 0, 0], "trees": [{"base_weights": [-0.3156967, -41.62068, 46.568867, -56.891537, -14.269255, 31.923754, 87.09361, -61.57627, -32.675674, -21.721035, -0.21637149, 14.587367, 45.112095, 71.23352, 101.27861, -37.881325, -27.624601, -18.367947, 0.41287106, -17.298697, -8.742457, 8.116222, -1.2380238, 2.9912543, 11.079603, 12.442621, 27.977001, 42.227074, 11.376854, 56.30616, 7.7709794], "categories": [], "categories_nodes": [], "categories_segments": [], "categories_sizes": [], "default_left": [0, 0, 0, 0, 0, 0, 0, 0, 0, 0, 0, 0, 0, 0, 0, 0, 0, 0, 0, 0, 0, 0, 0, 0, 0, 0, 0, 0, 0, 0, 0], "id": 0, "left_children": [1, 3, 5, 7, 9, 11, 13, 15, 17, 19, 21, 23, 25, 27, 29, -1, -1, -1, -1, -1, -1, -1, -1, -1, -1, -1, -1, -1, -1, -1, -1], "loss_changes": [3123302.8, 353734.88, 433308.12, 51348.25, 32898.277, 125261.19, 5452.25, 18879.25, 2553.6797, 8944.492, 3664.4595, 12190.254, 34866.688, 22637.0, 921.0625, 0.0, 0.0, 0.0, 0.0, 0.0, 0.0, 0.0, 0.0, 0.0, 0.0, 0.0, 0.0, 0.0, 0.0, 0.0, 0.0], "parents": [2147483647, 0, 0, 1, 1, 2, 2, 3, 3, 4, 4, 5, 5, 6, 6, 7, 7, 8, 8, 9, 9, 10, 10, 11, 11, 12, 12, 13, 13, 14, 14], "right_children": [2, 4, 6, 8, 10, 12, 14, 16, 18, 20, 22, 24, 26, 28, 30, -1, -1, -1, -1, -1, -1, -1, -1, -1, -1, -1, -1, -1, -1, -1, -1], "split_conditions": [77.0, 42.0, 157.0, 64.19792, 105.77444, 103.0, 114.87383, 17.0, 113.27071, 46.69575, 107.13747, 103.74104, 96.49225, 113.01561, 173.64299, -37.881325, -27.624601, -18.367947, 0.41287106, -17.298697, -8.742457, 8.116222, -1.2380238, 2.9912543, 11.079603, 12.442621, 27.977001, 42.227074, 11.376854, 56.30616, 7.7709794], "split_indices": [1, 1, 1, 0, 0, 1, 0, 1, 0, 0, 0, 0, 0, 0, 0, 0, 0, 0, 0, 0, 0, 0, 0, 0, 0, 0, 0, 0, 0, 0, 0], "split_type": [0, 0, 0, 0, 0, 0, 0, 0, 0, 0, 0, 0, 0, 0, 0, 0, 0, 0, 0, 0, 0, 0, 0, 0, 0, 0, 0, 0, 0, 0, 0], "sum_hessian": [1602.0, 852.0, 750.0, 543.0, 309.0, 558.0, 192.0, 448.0, 95.0, 200.0, 109.0, 246.0, 312.0, 106.0, 86.0, 256.0, 192.0, 93.0, 2.0, 66.0, 134.0, 9.0, 100.0, 97.0, 149.0, 69.0, 243.0, 93.0, 13.0, 84.0, 2.0], "tree_param": {"num_deleted": "0", "num_feature": "2", "num_nodes": "31", "size_leaf_vector": "1"}}, {"base_weights": [0.06665082, -15.580612, 28.810017, -27.56611, -4.1070747, 20.313965, 59.5075, -28.869078, -4.942914, -7.668698, 6.2719173, 13.875152, 31.247988, 4.158857, 33.890728, -18.088964, -12.675067, 9.031546, -5.311837, -5.8321643, 1.5348412, 5.81283, -1.5290536, 4.0896945, 8.935063, -5.428253, 17.49293, -1.7144169, 3.6979713], "categories": [], "categories_nodes": [], "categories_segments": [], "categories_sizes": [], "default_left": [0, 0, 0, 0, 0, 0, 0, 0, 0, 0, 0, 0, 0, 0, 0, 0, 0, 0, 0, 0, 0, 0, 0, 0, 0, 0, 0, 0, 0], "id": 1, "left_children": [1, 3, 5, 7, 9, 11, 13, 15, 17, 19, 21, 23, 25, 27, -1, -1, -1, -1, -1, -1, -1, -1, -1, -1, -1, -1, -1, -1, -1], "loss_changes": [754594.2, 148786.1, 147713.78, 14864.1875, 21012.47, 30846.281, 13275.0, 7621.5312, 4422.2466, 13066.322, 5852.9326, 4024.5586, 5600.047, 307.24777, 0.0, 0.0, 0.0, 0.0, 0.0, 0.0, 0.0, 0.0, 0.0, 0.0, 0.0, 0.0, 0.0, 0.0, 0.0], "parents": [2147483647, 0, 0, 1, 1, 2, 2, 3, 3, 4, 4, 5, 5, 6, 6, 7, 7, 8, 8, 9, 9, 10, 10, 11, 11, 12, 12, 13, 13], "right_children": [2, 4, 6, 8, 10, 12, 14, 16, 18, 20, 22, 24, 26, 28, -1, -1, -1, -1, -1, -1, -1, -1, -1, -1, -1, -1, -1, -1, -1], "split_conditions": [98.0, 33.0, 177.0, 101.0105, 110.567406, 133.0, 95.54941, 22.054024, 104.73521, 78.0, 87.0, 105.77444, 44.889076, 84.523026, 33.890728, -18.088964, -12.675067, 9.031546, -5.311837, -5.8321643, 1.5348412, 5.81283, -1.5290536, 4.0896945, 8.935063, -5.428253, 17.49293, -1.7144169, 3.6979713], "split_indices": [1, 1, 1, 0, 0, 1, 0, 0, 0, 1, 1, 0, 0, 0, 0, 0, 0, 0, 0, 0, 0, 0, 0, 0, 0, 0, 0, 0, 0], "split_type": [0, 0, 0, 0, 0, 0, 0, 0, 0, 0, 0, 0, 0, 0, 0, 0, 0, 0, 0, 0, 0, 0, 0, 0, 0, 0, 0, 0, 0], "sum_hessian": [1667.0, 1081.0, 586.0, 525.0, 556.0, 466.0, 120.0, 495.0, 30.0, 415.0, 141.0, 301.0, 165.0, 5.0, 115.0, 278.0, 217.0, 3.0, 27.0, 324.0, 91.0, 95.0, 46.0, 87.0, 214.0, 1.0, 164.0, 1.0, 4.0], "tree_param": {"num_deleted": "0", "num_feature": "2", "num_nodes": "29", "size_leaf_vector": "1"}}, {"base_weights": [-0.0786953, -10.712469, 8.420257, -7.7291403, -6.0210066, 6.271536, 50.900005, -10.843686, -3.7551503, 4.007152, 14.33104, 52.89427, 1.5780219, -8.356662, -1.4179995, -2.401228, 2.5407414, 0.61291426, 4.7610946, 15.437367, 6.5794773, 30.173922, 2.2475905], "categories": [], "categories_nodes": [], "categories_segments": [], "categories_sizes": [], "default_left": [0, 0, 0, 0, 0, 0, 0, 0, 0, 0, 0, 0, 0, 0, 0, 0, 0, 0, 0, 0, 0, 0, 0], "id": 2, "left_children": [1, 3, 5, -1, 7, 9, 11, 13, 15, 17, 19, 21, -1, -1, -1, -1, -1, -1, -1, -1, -1, -1, -1], "loss_changes": [145757.38, 10770.43, 80097.016, 0.0, 3139.2266, 15373.785, 3241.836, 3218.7617, 1220.8174, 9072.091, 4251.16, 2668.7344, 0.0, 0.0, 0.0, 0.0, 0.0, 0.0, 0.0, 0.0, 0.0, 0.0, 0.0], "parents": [2147483647, 0, 0, 1, 1, 2, 2, 4, 4, 5, 5, 6, 6, 7, 7, 8, 8, 9, 9, 10, 10, 11, 11], "right_children": [2, 4, 6, -1, 8, 10, 12, 14, 16, 18, 20, 22, -1, -1, -1, -1, -1, -1, -1, -1, -1, -1, -1], "split_conditions": [58.0, 39.30018, 227.0, -7.7291403, 27.0, 114.42103, 173.64299, 77.97382, 113.54265, 120.0, 83.0, 295.0, 1.5780219, -8.356662, -1.4179995, -2.401228, 2.5407414, 0.61291426, 4.7610946, 15.437367, 6.5794773, 30.173922, 2.2475905], "split_indices": [1, 0, 1, 0, 1, 0, 0, 0, 0, 1, 1, 1, 0, 0, 0, 0, 0, 0, 0, 0, 0, 0, 0], "split_type": [0, 0, 0, 0, 0, 0, 0, 0, 0, 0, 0, 0, 0, 0, 0, 0, 0, 0, 0, 0, 0, 0, 0], "sum_hessian": [1602.0, 711.0, 891.0, 409.0, 302.0, 854.0, 37.0, 90.0, 212.0, 673.0, 181.0, 35.0, 2.0, 56.0, 34.0, 200.0, 12.0, 419.0, 254.0, 18.0, 163.0, 33.0, 2.0], "tree_param": {"num_deleted": "0", "num_feature": "2", "num_nodes": "23", "size_leaf_vector": "1"}}, {"base_weights": [1.1063191, -2.6838923, 9.736379, -5.571585, 1.4835082, 5.8004217, 19.849613, -6.1161394, 4.279318, 5.946834, -1.4546901, 7.898263, -7.015334, 5.2964535, 25.125462, -2.8967216, -8.868383, -3.1455886, 9.966825, 1.7240456, 11.962885, -0.23146811, -6.3742337, 2.4495378, 9.764078, -9.186152, -0.98728496, 17.15203, -0.8833183, 24.89462, 9.902542], "categories": [], "categories_nodes": [], "categories_segments": [], "categories_sizes": [], "default_left": [0, 0, 0, 0, 0, 0, 0, 0, 0, 0, 0, 0, 0, 0, 0, 0, 0, 0, 0, 0, 0, 0, 0, 0, 0, 0, 0, 0, 0, 0, 0], "id": 3, "left_children": [1, 3, 5, 7, 9, 11, 13, 15, 17, 19, 21, 23, 25, 27, 29, -1, -1, -1, -1, -1, -1, -1, -1, -1, -1, -1, -1, -1, -1, -1, -1], "loss_changes": [53438.383, 13720.268, 19217.21, 3748.3242, 6202.49, 10150.027, 9830.996, 4976.756, 5874.301, 7960.581, 2984.975, 10347.107, 2588.9736, 8025.9907, 9852.855, 0.0, 0.0, 0.0, 0.0, 0.0, 0.0, 0.0, 0.0, 0.0, 0.0, 0.0, 0.0, 0.0, 0.0, 0.0, 0.0], "parents": [2147483647, 0, 0, 1, 1, 2, 2, 3, 3, 4, 4, 5, 5, 6, 6, 7, 7, 8, 8, 9, 9, 10, 10, 11, 11, 12, 12, 13, 13, 14, 14], "right_children": [2, 4, 6, 8, 10, 12, 14, 16, 18, 20, 22, 24, 26, 28, 30, -1, -1, -1, -1, -1, -1, -1, -1, -1, -1, -1, -1, -1, -1, -1, -1], "split_conditions": [108.0, 77.97382, 114.87383, 85.0, 108.11296, 113.01561, 133.0, 73.0, 55.954964, 107.01769, 103.0, 110.93254, 113.62073, 110.0, 158.0, -2.8967216, -8.868383, -3.1455886, 9.966825, 1.7240456, 11.962885, -0.23146811, -6.3742337, 2.4495378, 9.764078, -9.186152, -0.98728496, 17.15203, -0.8833183, 24.89462, 9.902542], "split_indices": [1, 0, 0, 1, 0, 0, 1, 1, 0, 0, 1, 0, 0, 1, 1, 0, 0, 0, 0, 0, 0, 0, 0, 0, 0, 0, 0, 0, 0, 0, 0], "split_type": [0, 0, 0, 0, 0, 0, 0, 0, 0, 0, 0, 0, 0, 0, 0, 0, 0, 0, 0, 0, 0, 0, 0, 0, 0, 0, 0, 0, 0, 0, 0], "sum_hessian": [1624.0, 1131.0, 493.0, 667.0, 464.0, 361.0, 132.0, 634.0, 33.0, 182.0, 282.0, 312.0, 49.0, 38.0, 94.0, 592.0, 42.0, 21.0, 12.0, 160.0, 22.0, 261.0, 21.0, 237.0, 75.0, 13.0, 36.0, 4.0, 34.0, 17.0, 77.0], "tree_param": {"num_deleted": "0", "num_feature": "2", "num_nodes": "31", "size_leaf_vector": "1"}}, {"base_weights": [-1.3537929, -1.8902816, 28.946985, -6.2530875, -0.7036024, -4.370663, 31.8596, -6.589824, 2.0235925, -0.17163724, -4.9941382, 33.66734, -1.3633792, -3.3242338, -5.312468, 4.1186447, -3.8110702, -0.3736402, 7.0724816, 0.8793704, -6.5271683, 19.732935, 0.9954295], "categories": [], "categories_nodes": [], "categories_segments": [], "categories_sizes": [], "default_left": [0, 0, 0, 0, 0, 0, 0, 0, 0, 0, 0, 0, 0, 0, 0, 0, 0, 0, 0, 0, 0, 0, 0], "id": 4, "left_children": [1, 3, 5, 7, 9, -1, 11, 13, 15, 17, 19, 21, -1, -1, -1, -1, -1, -1, -1, -1, -1, -1, -1], "loss_changes": [26522.947, 8210.143, 4418.9375, 1017.9375, 2862.998, 0.0, 2151.5254, 233.16406, 1131.5098, 7479.3574, 6374.2725, 1508.6504, 0.0, 0.0, 0.0, 0.0, 0.0, 0.0, 0.0, 0.0, 0.0, 0.0, 0.0], "parents": [2147483647, 0, 0, 1, 1, 2, 2, 3, 3, 4, 4, 6, 6, 7, 7, 8, 8, 9, 9, 10, 10, 11, 11], "right_children": [2, 4, 6, 8, 10, -1, 12, 14, 16, 18, 20, 22, -1, -1, -1, -1, -1, -1, -1, -1, -1, -1, -1], "split_conditions": [252.0, 25.0, 84.523026, 101.0105, 170.0, -4.370663, 173.64299, 61.41759, 109.582886, 160.0, 113.9916, 295.0, -1.3633792, -3.3242338, -5.312468, 4.1186447, -3.8110702, -0.3736402, 7.0724816, 0.8793704, -6.5271683, 19.732935, 0.9954295], "split_indices": [1, 1, 0, 0, 1, 0, 0, 0, 0, 1, 0, 1, 0, 0, 0, 0, 0, 0, 0, 0, 0, 0, 0], "split_type": [0, 0, 0, 0, 0, 0, 0, 0, 0, 0, 0, 0, 0, 0, 0, 0, 0, 0, 0, 0, 0, 0, 0], "sum_hessian": [1608.0, 1585.0, 23.0, 334.0, 1251.0, 1.0, 22.0, 322.0, 12.0, 1118.0, 133.0, 21.0, 1.0, 287.0, 35.0, 8.0, 4.0, 1081.0, 37.0, 70.0, 63.0, 19.0, 2.0], "tree_param": {"num_deleted": "0", "num_feature": "2", "num_nodes": "23", "size_leaf_vector": "1"}}, {"base_weights": [0.88952446, -1.3416504, 3.5218763, -1.0982041, -8.436221, 3.0270474, 11.64439, -1.3690044, 9.826166, -12.253822, 4.69192, 6.386624, 0.61860716, -0.524544, -4.5192757, 11.799703, -1.2248465, -2.8361907, -9.092253, 0.055215176, 6.158132, -0.12671386, 9.781401], "categories": [], "categories_nodes": [], "categories_segments": [], "categories_sizes": [], "default_left": [0, 0, 0, 0, 0, 0, 0, 0, 0, 0, 0, 0, 0, 0, 0, 0, 0, 0, 0, 0, 0, 0, 0], "id": 5, "left_children": [1, 3, 5, 7, 9, 11, -1, 13, 15, 17, -1, 19, 21, -1, -1, -1, -1, -1, -1, -1, -1, -1, -1], "loss_changes": [9536.636, 1470.5499, 6155.2217, 2609.1055, 2404.0444, 5888.58, 0.0, 2350.4844, 3257.2585, 310.76245, 0.0, 9197.968, 6309.202, 0.0, 0.0, 0.0, 0.0, 0.0, 0.0, 0.0, 0.0, 0.0, 0.0], "parents": [2147483647, 0, 0, 1, 1, 2, 2, 3, 3, 4, 4, 5, 5, 7, 7, 8, 8, 9, 9, 11, 11, 12, 12], "right_children": [2, 4, 6, 8, 10, 12, -1, 14, 16, 18, -1, 20, 22, -1, -1, -1, -1, -1, -1, -1, -1, -1, -1], "split_conditions": [78.0, 77.0, 270.0, 114.78032, 114.87383, 109.10182, 11.64439, 113.01561, 60.0, 107.87243, 4.69192, 95.54941, 167.36273, -0.524544, -4.5192757, 11.799703, -1.2248465, -2.8361907, -9.092253, 0.055215176, 6.158132, -0.12671386, 9.781401], "split_indices": [1, 1, 1, 0, 0, 0, 0, 0, 1, 0, 0, 0, 0, 0, 0, 0, 0, 0, 0, 0, 0, 0, 0], "split_type": [0, 0, 0, 0, 0, 0, 0, 0, 0, 0, 0, 0, 0, 0, 0, 0, 0, 0, 0, 0, 0, 0, 0], "sum_hessian": [1614.0, 875.0, 739.0, 852.0, 23.0, 725.0, 14.0, 836.0, 16.0, 20.0, 3.0, 299.0, 426.0, 794.0, 42.0, 6.0, 10.0, 12.0, 8.0, 132.0, 167.0, 411.0, 15.0], "tree_param": {"num_deleted": "0", "num_feature": "2", "num_nodes": "23", "size_leaf_vector": "1"}}, {"base_weights": [0.50680333, -2.494544, 1.4844079, -1.124886, -7.459394, 4.3394694, -0.37156424, -2.1327322, 5.0531034, -5.481822, -7.4176197, 2.9279385, 19.808949, -8.137705, 0.49711323, -3.059503, -0.8698384, 0.5586948, 4.496286, -5.5070505, -0.37047002, -0.15115538, 2.993962, 11.157177, 0.12879872, 0.115271986, -5.82282, 4.951093, -0.16716035], "categories": [], "categories_nodes": [], "categories_segments": [], "categories_sizes": [], "default_left": [0, 0, 0, 0, 0, 0, 0, 0, 0, 0, 0, 0, 0, 0, 0, 0, 0, 0, 0, 0, 0, 0, 0, 0, 0, 0, 0, 0, 0], "id": 6, "left_children": [1, 3, 5, 7, 9, 11, 13, 15, 17, 19, -1, 21, 23, 25, 27, -1, -1, -1, -1, -1, -1, -1, -1, -1, -1, -1, -1, -1, -1], "loss_changes": [4765.6587, 2670.667, 6491.399, 2046.9272, 618.6719, 10220.32, 5057.261, 478.8479, 539.99536, 1562.6814, 0.0, 3620.8247, 342.0996, 1553.4995, 4622.921, 0.0, 0.0, 0.0, 0.0, 0.0, 0.0, 0.0, 0.0, 0.0, 0.0, 0.0, 0.0, 0.0, 0.0], "parents": [2147483647, 0, 0, 1, 1, 2, 2, 3, 3, 4, 4, 5, 5, 6, 6, 7, 7, 8, 8, 9, 9, 11, 11, 12, 12, 13, 13, 14, 14], "right_children": [2, 4, 6, 8, 10, 12, 14, 16, 18, 20, -1, 22, 24, 26, 28, -1, -1, -1, -1, -1, -1, -1, -1, -1, -1, -1, -1, -1, -1], "split_conditions": [30.449589, 32.0, 100.19133, 27.0, 26.447199, 95.54941, 106.282234, 9.347019, 11.999128, 50.0, -7.4176197, 50.0, 222.0, 45.0, 107.25773, -3.059503, -0.8698384, 0.5586948, 4.496286, -5.5070505, -0.37047002, -0.15115538, 2.993962, 11.157177, 0.12879872, 0.115271986, -5.82282, 4.951093, -0.16716035], "split_indices": [0, 1, 0, 1, 0, 0, 0, 0, 0, 1, 0, 1, 1, 1, 0, 0, 0, 0, 0, 0, 0, 0, 0, 0, 0, 0, 0, 0, 0], "split_type": [0, 0, 0, 0, 0, 0, 0, 0, 0, 0, 0, 0, 0, 0, 0, 0, 0, 0, 0, 0, 0, 0, 0, 0, 0, 0, 0, 0, 0], "sum_hessian": [1612.0, 394.0, 1218.0, 314.0, 80.0, 477.0, 741.0, 273.0, 41.0, 68.0, 12.0, 443.0, 34.0, 70.0, 671.0, 31.0, 242.0, 21.0, 20.0, 32.0, 36.0, 197.0, 246.0, 33.0, 1.0, 17.0, 53.0, 53.0, 618.0], "tree_param": {"num_deleted": "0", "num_feature": "2", "num_nodes": "29", "size_leaf_vector": "1"}}, {"base_weights": [-0.9311423, -58.497505, 98.402214, -80.30911, -16.103586, 62.69511, 147.71404, -47.941936, -34.132023, -33.28766, -0.78971285, 39.916134, 84.45299, 66.031975, 97.32559, -20.681997, -6.3689947, -5.2477217, 4.2585726, 13.936461, 27.351542, 22.452246, 48.42311], "categories": [], "categories_nodes": [], "categories_segments": [], "categories_sizes": [], "default_left": [0, 0, 0, 0, 0, 0, 0, 0, 0, 0, 0, 0, 0, 0, 0, 0, 0, 0, 0, 0, 0, 0, 0], "id": 7, "left_children": [1, 3, 5, 7, 9, 11, 13, -1, -1, 15, 17, 19, 21, -1, -1, -1, -1, -1, -1, -1, -1, -1, -1], "loss_changes": [9216896.0, 936559.25, 991318.5, 54950.0, 92856.93, 156453.62, 82923.5, 0.0, 0.0, 13238.516, 14766.1455, 19289.312, 8058.25, 0.0, 0.0, 0.0, 0.0, 0.0, 0.0, 0.0, 0.0, 0.0, 0.0], "parents": [2147483647, 0, 0, 1, 1, 2, 2, 3, 3, 4, 4, 5, 5, 6, 6, 9, 9, 10, 10, 11, 11, 12, 12], "right_children": [2, 4, 6, 8, 10, 12, 14, -1, -1, 16, 18, 20, 22, -1, -1, -1, -1, -1, -1, -1, -1, -1, -1], "split_conditions": [120.0, 49.0, 208.0, 26.0, 80.0, 166.0, 261.0, -47.941936, -34.132023, 93.993774, 98.0, 138.62743, 128.11234, 66.031975, 97.32559, -20.681997, -6.3689947, -5.2477217, 4.2585726, 13.936461, 27.351542, 22.452246, 48.42311], "split_indices": [1, 1, 1, 1, 1, 1, 1, 0, 0, 0, 1, 0, 0, 0, 0, 0, 0, 0, 0, 0, 0, 0, 0], "split_type": [0, 0, 0, 0, 0, 0, 0, 0, 0, 0, 0, 0, 0, 0, 0, 0, 0, 0, 0, 0, 0, 0, 0], "sum_hessian": [1601.0, 1015.0, 586.0, 667.0, 348.0, 347.0, 239.0, 470.0, 197.0, 161.0, 187.0, 177.0, 170.0, 137.0, 102.0, 131.0, 30.0, 92.0, 95.0, 79.0, 98.0, 18.0, 152.0], "tree_param": {"num_deleted": "0", "num_feature": "2", "num_nodes": "23", "size_leaf_vector": "1"}}, {"base_weights": [-0.19797082, -52.648167, 85.85166, -80.03666, -10.804466, 53.54946, 134.03038, -99.03482, -54.42725, -26.723423, 5.96168, 43.085762, 75.29682, 108.72966, 171.89276, -56.746567, -37.568146, -36.432903, -24.29278, -19.077444, -6.0110493, -3.1089158, 7.5740438, 13.764824, 25.440825, 1.9972461, 42.377914, 60.307255, 5.401069, 6.96188, 96.15184], "categories": [], "categories_nodes": [], "categories_segments": [], "categories_sizes": [], "default_left": [0, 0, 0, 0, 0, 0, 0, 0, 0, 0, 0, 0, 0, 0, 0, 0, 0, 0, 0, 0, 0, 0, 0, 0, 0, 0, 0, 0, 0, 0, 0], "id": 8, "left_children": [1, 3, 5, 7, 9, 11, 13, 15, 17, 19, 21, 23, 25, 27, 29, -1, -1, -1, -1, -1, -1, -1, -1, -1, -1, -1, -1, -1, -1, -1, -1], "loss_changes": [7274604.0, 1142970.5, 911195.5, 264953.25, 108260.7, 67678.875, 130322.5, 5256.25, 16851.562, 24036.984, 18596.48, 8943.219, 12868.6875, 8688.5, 28810.5, 0.0, 0.0, 0.0, 0.0, 0.0, 0.0, 0.0, 0.0, 0.0, 0.0, 0.0, 0.0, 0.0, 0.0, 0.0, 0.0], "parents": [2147483647, 0, 0, 1, 1, 2, 2, 3, 3, 4, 4, 5, 5, 6, 6, 7, 7, 8, 8, 9, 9, 10, 10, 11, 11, 12, 12, 13, 13, 14, 14], "right_children": [2, 4, 6, 8, 10, 12, 14, 16, 18, 20, 22, 24, 26, 28, 30, -1, -1, -1, -1, -1, -1, -1, -1, -1, -1, -1, -1, -1, -1, -1, -1], "split_conditions": [140.0, 77.0, 218.0, 37.0, 125.93317, 187.0, 287.0, 56.721058, 62.24277, 115.0, 107.0, 110.39441, 102.60199, 283.0, 145.48903, -56.746567, -37.568146, -36.432903, -24.29278, -19.077444, -6.0110493, -3.1089158, 7.5740438, 13.764824, 25.440825, 1.9972461, 42.377914, 60.307255, 5.401069, 6.96188, 96.15184], "split_indices": [1, 1, 1, 1, 0, 1, 1, 0, 0, 1, 1, 0, 0, 1, 0, 0, 0, 0, 0, 0, 0, 0, 0, 0, 0, 0, 0, 0, 0, 0, 0], "split_type": [0, 0, 0, 0, 0, 0, 0, 0, 0, 0, 0, 0, 0, 0, 0, 0, 0, 0, 0, 0, 0, 0, 0, 0, 0, 0, 0, 0, 0, 0, 0], "sum_hessian": [1601.0, 996.0, 605.0, 599.0, 397.0, 369.0, 236.0, 335.0, 264.0, 202.0, 195.0, 260.0, 109.0, 154.0, 82.0, 284.0, 51.0, 109.0, 155.0, 130.0, 72.0, 79.0, 116.0, 46.0, 214.0, 3.0, 106.0, 152.0, 2.0, 2.0, 80.0], "tree_param": {"num_deleted": "0", "num_feature": "2", "num_nodes": "31", "size_leaf_vector": "1"}}, {"base_weights": [0.3576539, -25.339739, 68.49154, -43.604404, -1.5895703, 47.733685, 98.79305, -46.815056, -25.290369, -11.4791565, 10.48838, 28.744598, 53.053738, 39.655178, 61.706207, -28.06189, -20.17359, -14.385749, 5.964016, -8.524538, 0.9579887, 1.1578023, 7.28392, 9.920495, 20.586376, 10.106065, 29.772709], "categories": [], "categories_nodes": [], "categories_segments": [], "categories_sizes": [], "default_left": [0, 0, 0, 0, 0, 0, 0, 0, 0, 0, 0, 0, 0, 0, 0, 0, 0, 0, 0, 0, 0, 0, 0, 0, 0, 0, 0], "id": 9, "left_children": [1, 3, 5, 7, 9, 11, 13, 15, 17, 19, 21, 23, 25, -1, -1, -1, -1, -1, -1, -1, -1, -1, -1, -1, -1, -1, -1], "loss_changes": [2821958.5, 507332.2, 252173.12, 32496.875, 62093.137, 19283.562, 18698.5, 13617.5, 4984.383, 15314.297, 5263.365, 2994.1406, 2348.25, 0.0, 0.0, 0.0, 0.0, 0.0, 0.0, 0.0, 0.0, 0.0, 0.0, 0.0, 0.0, 0.0, 0.0], "parents": [2147483647, 0, 0, 1, 1, 2, 2, 3, 3, 4, 4, 5, 5, 6, 6, 7, 7, 8, 8, 9, 9, 10, 10, 11, 11, 12, 12], "right_children": [2, 4, 6, 8, 10, 12, 14, 16, 18, 20, 22, 24, 26, -1, -1, -1, -1, -1, -1, -1, -1, -1, -1, -1, -1, -1, -1], "split_conditions": [83.0, 32.0, 138.0, 51.6412, 58.0, 74.463715, 163.0, 15.0, 122.422646, 75.284485, 63.0, 102.0, 85.0, 39.655178, 61.706207, -28.06189, -20.17359, -14.385749, 5.964016, -8.524538, 0.9579887, 1.1578023, 7.28392, 9.920495, 20.586376, 10.106065, 29.772709], "split_indices": [1, 1, 1, 0, 1, 0, 1, 1, 0, 0, 1, 1, 1, 0, 0, 0, 0, 0, 0, 0, 0, 0, 0, 0, 0, 0, 0], "split_type": [0, 0, 0, 0, 0, 0, 0, 0, 0, 0, 0, 0, 0, 0, 0, 0, 0, 0, 0, 0, 0, 0, 0, 0, 0, 0, 0], "sum_hessian": [1601.0, 1165.0, 436.0, 656.0, 509.0, 267.0, 169.0, 551.0, 105.0, 280.0, 229.0, 66.0, 201.0, 68.0, 101.0, 374.0, 177.0, 104.0, 1.0, 214.0, 66.0, 59.0, 170.0, 37.0, 29.0, 9.0, 192.0], "tree_param": {"num_deleted": "0", "num_feature": "2", "num_nodes": "27", "size_leaf_vector": "1"}}, {"base_weights": [-1.363958, -44.76021, 43.40899, -63.57112, -19.037628, 13.224597, 71.83256, -68.87297, -28.164118, -26.22059, 12.961427, -6.335525, 23.196133, 63.30891, 124.2168, -46.204086, -33.325504, -17.743488, 9.324781, -19.008482, -8.716115, 1.0392388, 14.556115, 4.9270773, -4.664023, 9.476982, 19.466639, 21.62604, 39.76754, 3.9825368, 69.16907], "categories": [], "categories_nodes": [], "categories_segments": [], "categories_sizes": [], "default_left": [0, 0, 0, 0, 0, 0, 0, 0, 0, 0, 0, 0, 0, 0, 0, 0, 0, 0, 0, 0, 0, 0, 0, 0, 0, 0, 0, 0, 0, 0, 0], "id": 10, "left_children": [1, 3, 5, 7, 9, 11, 13, 15, 17, 19, 21, 23, 25, 27, 29, -1, -1, -1, -1, -1, -1, -1, -1, -1, -1, -1, -1, -1, -1, -1, -1], "loss_changes": [3131691.5, 389460.12, 675566.6, 77830.0, 83063.52, 77133.984, 139440.25, 23322.125, 15966.234, 22166.266, 9956.962, 4883.8564, 15654.125, 62636.625, 4372.6875, 0.0, 0.0, 0.0, 0.0, 0.0, 0.0, 0.0, 0.0, 0.0, 0.0, 0.0, 0.0, 0.0, 0.0, 0.0, 0.0], "parents": [2147483647, 0, 0, 1, 1, 2, 2, 3, 3, 4, 4, 5, 5, 6, 6, 7, 7, 8, 8, 9, 9, 10, 10, 11, 11, 12, 12, 13, 13, 14, 14], "right_children": [2, 4, 6, 8, 10, 12, 14, 16, 18, 20, 22, 24, 26, 28, 30, -1, -1, -1, -1, -1, -1, -1, -1, -1, -1, -1, -1, -1, -1, -1, -1], "split_conditions": [110.0, 68.0, 160.0, 103.38585, 140.85646, 113.55607, 270.0, 28.0, 163.30627, 89.0, 167.66708, 112.0, 166.39471, 143.9465, 145.21887, -46.204086, -33.325504, -17.743488, 9.324781, -19.008482, -8.716115, 1.0392388, 14.556115, 4.9270773, -4.664023, 9.476982, 19.466639, 21.62604, 39.76754, 3.9825368, 69.16907], "split_indices": [1, 1, 1, 0, 0, 0, 1, 1, 0, 1, 0, 1, 0, 0, 0, 0, 0, 0, 0, 0, 0, 0, 0, 0, 0, 0, 0, 0, 0, 0, 0], "split_type": [0, 0, 0, 0, 0, 0, 0, 0, 0, 0, 0, 0, 0, 0, 0, 0, 0, 0, 0, 0, 0, 0, 0, 0, 0, 0, 0, 0, 0, 0, 0], "sum_hessian": [1601.0, 813.0, 788.0, 465.0, 348.0, 386.0, 402.0, 400.0, 65.0, 285.0, 63.0, 131.0, 255.0, 356.0, 46.0, 124.0, 276.0, 61.0, 4.0, 151.0, 134.0, 38.0, 25.0, 14.0, 117.0, 180.0, 75.0, 105.0, 251.0, 1.0, 45.0], "tree_param": {"num_deleted": "0", "num_feature": "2", "num_nodes": "31", "size_leaf_vector": "1"}}, {"base_weights": [0.43807265, -28.993067, 70.221344, -52.843143, -6.612367, 42.548595, 112.33873, -54.53745, -6.361901, -17.236328, 10.437659, 21.442492, 52.65407, 4.262266, 113.38611, -34.29642, -25.240576, -7.059374, 6.616473, -15.059696, -5.4148226, 2.7510242, 11.030739, 8.755727, 17.446386, 16.906593, 34.057983, 4.406049, -1.6955137, 52.829376, 76.81316], "categories": [], "categories_nodes": [], "categories_segments": [], "categories_sizes": [], "default_left": [0, 0, 0, 0, 0, 0, 0, 0, 0, 0, 0, 0, 0, 0, 0, 0, 0, 0, 0, 0, 0, 0, 0, 0, 0, 0, 0, 0, 0, 0, 0], "id": 11, "left_children": [1, 3, 5, 7, 9, 11, 13, 15, 17, 19, 21, 23, 25, 27, 29, -1, -1, -1, -1, -1, -1, -1, -1, -1, -1, -1, -1, -1, -1, -1, -1], "loss_changes": [3312274.2, 603634.75, 531766.0, 41314.625, 108097.0, 57334.875, 18490.25, 20269.625, 3857.832, 26018.164, 11504.232, 3256.3008, 29821.0, 337.11328, 11535.75, 0.0, 0.0, 0.0, 0.0, 0.0, 0.0, 0.0, 0.0, 0.0, 0.0, 0.0, 0.0, 0.0, 0.0, 0.0, 0.0], "parents": [2147483647, 0, 0, 1, 1, 2, 2, 3, 3, 4, 4, 5, 5, 6, 6, 7, 7, 8, 8, 9, 9, 10, 10, 11, 11, 12, 12, 13, 13, 14, 14], "right_children": [2, 4, 6, 8, 10, 12, 14, 16, 18, 20, 22, 24, 26, 28, 30, -1, -1, -1, -1, -1, -1, -1, -1, -1, -1, -1, -1, -1, -1, -1, -1], "split_conditions": [100.0, 40.0, 158.0, 85.07293, 77.0, 88.14708, 69.6197, 18.0, 117.50331, 48.47185, 90.53356, 128.0, 118.0, 69.055244, 220.0, -34.29642, -25.240576, -7.059374, 6.616473, -15.059696, -5.4148226, 2.7510242, 11.030739, 8.755727, 17.446386, 16.906593, 34.057983, 4.406049, -1.6955137, 52.829376, 76.81316], "split_indices": [1, 1, 1, 0, 1, 0, 0, 1, 0, 0, 0, 1, 1, 0, 1, 0, 0, 0, 0, 0, 0, 0, 0, 0, 0, 0, 0, 0, 0, 0, 0], "split_type": [0, 0, 0, 0, 0, 0, 0, 0, 0, 0, 0, 0, 0, 0, 0, 0, 0, 0, 0, 0, 0, 0, 0, 0, 0, 0, 0, 0, 0, 0, 0], "sum_hessian": [1602.0, 1129.0, 473.0, 543.0, 586.0, 292.0, 181.0, 523.0, 20.0, 361.0, 225.0, 100.0, 192.0, 2.0, 179.0, 257.0, 266.0, 16.0, 4.0, 146.0, 215.0, 149.0, 76.0, 74.0, 26.0, 64.0, 128.0, 1.0, 1.0, 123.0, 56.0], "tree_param": {"num_deleted": "0", "num_feature": "2", "num_nodes": "31", "size_leaf_vector": "1"}}, {"base_weights": [-1.7115548, -30.304419, 39.706547, -46.515007, -12.025865, 17.9779, 56.547558, -49.921608, -21.327091, -19.651592, -3.7737093, 7.3875303, 21.928501, 23.406082, 37.936516, -29.05583, -20.579712, -12.717045, -5.645917, -12.859796, -7.8109183, -4.329402, 1.966797, 2.9474823, 8.691086, 6.5448055, 14.874929], "categories": [], "categories_nodes": [], "categories_segments": [], "categories_sizes": [], "default_left": [0, 0, 0, 0, 0, 0, 0, 0, 0, 0, 0, 0, 0, 0, 0, 0, 0, 0, 0, 0, 0, 0, 0, 0, 0, 0, 0], "id": 12, "left_children": [1, 3, 5, 7, 9, 11, 13, 15, 17, 19, 21, 23, 25, -1, -1, -1, -1, -1, -1, -1, -1, -1, -1, -1, -1, -1, -1], "loss_changes": [1908896.4, 279477.75, 235440.31, 37445.0, 28257.258, 11484.258, 48206.25, 5298.375, 96.14453, 2991.9766, 6940.731, 1051.56, 9161.625, 0.0, 0.0, 0.0, 0.0, 0.0, 0.0, 0.0, 0.0, 0.0, 0.0, 0.0, 0.0, 0.0, 0.0], "parents": [2147483647, 0, 0, 1, 1, 2, 2, 3, 3, 4, 4, 5, 5, 6, 6, 7, 7, 8, 8, 9, 9, 10, 10, 11, 11, 12, 12], "right_children": [2, 4, 6, 8, 10, 12, 14, 16, 18, 20, 22, 24, 26, -1, -1, -1, -1, -1, -1, -1, -1, -1, -1, -1, -1, -1, -1], "split_conditions": [71.0, 33.0, 101.0, 51.999554, 52.0, 73.34517, 126.0, 24.0, 90.92212, 65.56481, 90.79605, 94.0, 80.0, 23.406082, 37.936516, -29.05583, -20.579712, -12.717045, -5.645917, -12.859796, -7.8109183, -4.329402, 1.966797, 2.9474823, 8.691086, 6.5448055, 14.874929], "split_indices": [1, 1, 1, 0, 1, 0, 1, 1, 0, 0, 0, 1, 1, 0, 0, 0, 0, 0, 0, 0, 0, 0, 0, 0, 0, 0, 0], "split_type": [0, 0, 0, 0, 0, 0, 0, 0, 0, 0, 0, 0, 0, 0, 0, 0, 0, 0, 0, 0, 0, 0, 0, 0, 0, 0, 0], "sum_hessian": [1601.0, 948.0, 653.0, 498.0, 450.0, 290.0, 363.0, 434.0, 64.0, 230.0, 220.0, 83.0, 207.0, 182.0, 181.0, 338.0, 96.0, 50.0, 14.0, 126.0, 104.0, 141.0, 79.0, 74.0, 9.0, 76.0, 131.0], "tree_param": {"num_deleted": "0", "num_feature": "2", "num_nodes": "27", "size_leaf_vector": "1"}}, {"base_weights": [0.7730011, -37.568974, 83.503555, -59.058887, -3.1951005, 58.627205, 80.06215, -66.6522, -43.566498, -15.944267, 8.401579, 46.16277, 44.406143, -37.474964, -17.576763, -24.924534, -7.9076214, -11.193738, -0.8841698, -1.7297128, 7.2592845, 20.015383, 34.40168], "categories": [], "categories_nodes": [], "categories_segments": [], "categories_sizes": [], "default_left": [0, 0, 0, 0, 0, 0, 0, 0, 0, 0, 0, 0, 0, 0, 0, 0, 0, 0, 0, 0, 0, 0, 0], "id": 13, "left_children": [1, 3, 5, 7, 9, 11, -1, 13, 15, 17, 19, 21, -1, -1, -1, -1, -1, -1, -1, -1, -1, -1, -1], "loss_changes": [5112526.0, 812575.75, 741934.75, 64008.0, 64209.297, 82784.25, 0.0, 11123.875, 8665.125, 12866.949, 12875.225, 27959.312, 0.0, 0.0, 0.0, 0.0, 0.0, 0.0, 0.0, 0.0, 0.0, 0.0, 0.0], "parents": [2147483647, 0, 0, 1, 1, 2, 2, 3, 3, 4, 4, 5, 5, 7, 7, 8, 8, 9, 9, 10, 10, 11, 11], "right_children": [2, 4, 6, 8, 10, 12, -1, 14, 16, 18, 20, 22, -1, -1, -1, -1, -1, -1, -1, -1, -1, -1, -1], "split_conditions": [112.0, 53.0, 198.0, 32.0, 79.0, 161.0, 80.06215, 75.877205, 95.21203, 97.43792, 72.69075, 134.57077, 44.406143, -37.474964, -17.576763, -24.924534, -7.9076214, -11.193738, -0.8841698, -1.7297128, 7.2592845, 20.015383, 34.40168], "split_indices": [1, 1, 1, 1, 1, 1, 0, 0, 0, 0, 0, 0, 0, 0, 0, 0, 0, 0, 0, 0, 0, 0, 0], "split_type": [0, 0, 0, 0, 0, 0, 0, 0, 0, 0, 0, 0, 0, 0, 0, 0, 0, 0, 0, 0, 0, 0, 0], "sum_hessian": [1601.0, 1096.0, 505.0, 672.0, 424.0, 368.0, 137.0, 439.0, 233.0, 201.0, 223.0, 246.0, 122.0, 416.0, 23.0, 217.0, 16.0, 152.0, 49.0, 66.0, 157.0, 165.0, 81.0], "tree_param": {"num_deleted": "0", "num_feature": "2", "num_nodes": "23", "size_leaf_vector": "1"}}, {"base_weights": [1.2922437, -51.14132, 107.882835, -77.97968, -15.041595, 50.64551, 132.68805, -47.320995, -57.273792, -28.75356, 14.891659, 31.238197, 31.669203, 62.074444, 101.377686, -31.724276, 1.6628643, -21.512863, -11.307348, 3.563586, 13.909632, 17.835136, -2.9777606], "categories": [], "categories_nodes": [], "categories_segments": [], "categories_sizes": [], "default_left": [0, 0, 0, 0, 0, 0, 0, 0, 0, 0, 0, 0, 0, 0, 0, 0, 0, 0, 0, 0, 0, 0, 0], "id": 14, "left_children": [1, 3, 5, 7, 9, 11, 13, -1, 15, 17, 19, 21, -1, -1, -1, -1, -1, -1, -1, -1, -1, -1, -1], "loss_changes": [9007841.0, 1040419.75, 718185.0, 76575.5, 194153.6, 13086.0, 263765.0, 0.0, 5586.4375, 23030.562, 12271.707, 3406.6172, 0.0, 0.0, 0.0, 0.0, 0.0, 0.0, 0.0, 0.0, 0.0, 0.0, 0.0], "parents": [2147483647, 0, 0, 1, 1, 2, 2, 3, 3, 4, 4, 5, 5, 6, 6, 8, 8, 9, 9, 10, 10, 11, 11], "right_children": [2, 4, 6, 8, 10, 12, 14, -1, 16, 18, 20, 22, -1, -1, -1, -1, -1, -1, -1, -1, -1, -1, -1], "split_conditions": [126.0, 45.0, 177.0, 24.0, 95.0, 119.39226, 262.0, -47.320995, 153.26257, 64.0, 122.61605, 117.21102, 31.669203, 62.074444, 101.377686, -31.724276, 1.6628643, -21.512863, -11.307348, 3.563586, 13.909632, 17.835136, -2.9777606], "split_indices": [1, 1, 1, 1, 1, 0, 1, 0, 0, 1, 0, 0, 0, 0, 0, 0, 0, 0, 0, 0, 0, 0, 0], "split_type": [0, 0, 0, 0, 0, 0, 0, 0, 0, 0, 0, 0, 0, 0, 0, 0, 0, 0, 0, 0, 0, 0, 0], "sum_hessian": [1601.0, 1075.0, 526.0, 613.0, 462.0, 164.0, 362.0, 429.0, 184.0, 317.0, 145.0, 51.0, 113.0, 274.0, 88.0, 183.0, 1.0, 131.0, 186.0, 85.0, 60.0, 50.0, 1.0], "tree_param": {"num_deleted": "0", "num_feature": "2", "num_nodes": "23", "size_leaf_vector": "1"}}, {"base_weights": [1.4208536, -33.863586, 73.345665, -48.286613, -11.527668, 55.129417, 163.51135, -29.444227, -40.515213, -21.239025, -0.07791397, 33.7273, 77.331665, 12.628492, 90.95508, -23.671043, -15.877949, -14.891534, -7.3766356, -3.0966558, 9.559405, 12.474808, 22.74985, 33.68698, 48.962486], "categories": [], "categories_nodes": [], "categories_segments": [], "categories_sizes": [], "default_left": [0, 0, 0, 0, 0, 0, 0, 0, 0, 0, 0, 0, 0, 0, 0, 0, 0, 0, 0, 0, 0, 0, 0, 0, 0], "id": 15, "left_children": [1, 3, 5, 7, 9, 11, 13, -1, 15, 17, 19, 21, 23, -1, -1, -1, -1, -1, -1, -1, -1, -1, -1, -1, -1], "loss_changes": [4090176.8, 345368.75, 822495.0, 15019.5, 47959.57, 199459.38, 2101.0, 0.0, 1706.2188, 8701.234, 20245.396, 15042.0625, 11244.25, 0.0, 0.0, 0.0, 0.0, 0.0, 0.0, 0.0, 0.0, 0.0, 0.0, 0.0, 0.0], "parents": [2147483647, 0, 0, 1, 1, 2, 2, 3, 3, 4, 4, 5, 5, 6, 6, 8, 8, 9, 9, 10, 10, 11, 11, 12, 12], "right_children": [2, 4, 6, 8, 10, 12, 14, -1, 16, 18, 20, 22, 24, -1, -1, -1, -1, -1, -1, -1, -1, -1, -1, -1, -1], "split_conditions": [73.0, 28.0, 187.0, 13.0, 48.0, 115.0, 86.48914, -29.444227, 38.73848, 41.524525, 83.00809, 80.46495, 143.0, 12.628492, 90.95508, -23.671043, -15.877949, -14.891534, -7.3766356, -3.0966558, 9.559405, 12.474808, 22.74985, 33.68698, 48.962486], "split_indices": [1, 1, 1, 1, 1, 1, 0, 0, 0, 0, 0, 0, 1, 0, 0, 0, 0, 0, 0, 0, 0, 0, 0, 0, 0], "split_type": [0, 0, 0, 0, 0, 0, 0, 0, 0, 0, 0, 0, 0, 0, 0, 0, 0, 0, 0, 0, 0, 0, 0, 0, 0], "sum_hessian": [1601.0, 1076.0, 525.0, 650.0, 426.0, 444.0, 81.0, 369.0, 281.0, 228.0, 198.0, 233.0, 211.0, 2.0, 79.0, 219.0, 62.0, 123.0, 105.0, 153.0, 45.0, 104.0, 129.0, 103.0, 108.0], "tree_param": {"num_deleted": "0", "num_feature": "2", "num_nodes": "25", "size_leaf_vector": "1"}}, {"base_weights": [-1.1350067, -32.641006, 54.413334, -45.930004, -10.739246, 31.323751, 83.40407, -52.609924, -33.998817, -19.014238, 0.22526279, 20.990587, 39.771465, 36.9556, 58.965652, -29.129272, -4.160435, -19.167986, -5.0094304, -10.887475, 5.669352, -3.5574253, 4.5119147, 3.9798534, 13.395041, 4.8169174, 22.319658], "categories": [], "categories_nodes": [], "categories_segments": [], "categories_sizes": [], "default_left": [0, 0, 0, 0, 0, 0, 0, 0, 0, 0, 0, 0, 0, 0, 0, 0, 0, 0, 0, 0, 0, 0, 0, 0, 0, 0, 0], "id": 16, "left_children": [1, 3, 5, 7, 9, 11, 13, 15, 17, 19, 21, 23, 25, -1, -1, -1, -1, -1, -1, -1, -1, -1, -1, -1, -1, -1, -1], "loss_changes": [2820961.0, 296654.62, 376411.12, 41221.375, 35898.254, 24595.0, 59671.25, 4176.375, 3469.2812, 6264.789, 9653.004, 6516.4062, 2535.7188, 0.0, 0.0, 0.0, 0.0, 0.0, 0.0, 0.0, 0.0, 0.0, 0.0, 0.0, 0.0, 0.0, 0.0], "parents": [2147483647, 0, 0, 1, 1, 2, 2, 3, 3, 4, 4, 5, 5, 6, 6, 7, 7, 8, 8, 9, 9, 10, 10, 11, 11, 12, 12], "right_children": [2, 4, 6, 8, 10, 12, 14, 16, 18, 20, 22, 24, 26, -1, -1, -1, -1, -1, -1, -1, -1, -1, -1, -1, -1, -1, -1], "split_conditions": [79.0, 40.0, 122.0, 24.0, 58.0, 98.0, 164.0, 71.07543, 77.359604, 112.309456, 66.468475, 63.856827, 40.59231, 36.9556, 58.965652, -29.129272, -4.160435, -19.167986, -5.0094304, -10.887475, 5.669352, -3.5574253, 4.5119147, 3.9798534, 13.395041, 4.8169174, 22.319658], "split_indices": [1, 1, 1, 1, 1, 1, 1, 0, 0, 0, 0, 0, 0, 0, 0, 0, 0, 0, 0, 0, 0, 0, 0, 0, 0, 0, 0], "split_type": [0, 0, 0, 0, 0, 0, 0, 0, 0, 0, 0, 0, 0, 0, 0, 0, 0, 0, 0, 0, 0, 0, 0, 0, 0, 0, 0], "sum_hessian": [1601.0, 1023.0, 578.0, 633.0, 390.0, 328.0, 250.0, 394.0, 239.0, 220.0, 170.0, 156.0, 172.0, 161.0, 89.0, 390.0, 4.0, 229.0, 10.0, 216.0, 4.0, 93.0, 77.0, 34.0, 122.0, 6.0, 166.0], "tree_param": {"num_deleted": "0", "num_feature": "2", "num_nodes": "27", "size_leaf_vector": "1"}}, {"base_weights": [-1.3364006, -28.491444, 78.95999, -47.973957, -0.1822605, 51.538334, 64.78953, -53.535778, -33.39909, -11.894545, 13.618513, 36.911316, 37.724804, -29.705843, -7.845638, -21.240755, -12.690005, -8.697557, -2.402884, 0.16475965, 9.31274, 17.347603, 27.400887], "categories": [], "categories_nodes": [], "categories_segments": [], "categories_sizes": [], "default_left": [0, 0, 0, 0, 0, 0, 0, 0, 0, 0, 0, 0, 0, 0, 0, 0, 0, 0, 0, 0, 0, 0, 0], "id": 17, "left_children": [1, 3, 5, 7, 9, 11, -1, 13, 15, 17, 19, 21, -1, -1, -1, -1, -1, -1, -1, -1, -1, -1, -1], "loss_changes": [3514826.5, 664220.25, 401110.75, 48174.75, 81112.12, 48285.125, 0.0, 5301.5, 6584.4844, 7631.75, 10141.445, 1593.9062, 0.0, 0.0, 0.0, 0.0, 0.0, 0.0, 0.0, 0.0, 0.0, 0.0, 0.0], "parents": [2147483647, 0, 0, 1, 1, 2, 2, 3, 3, 4, 4, 5, 5, 7, 7, 8, 8, 9, 9, 10, 10, 11, 11], "right_children": [2, 4, 6, 8, 10, 12, -1, 14, 16, 18, 20, 22, -1, -1, -1, -1, -1, -1, -1, -1, -1, -1, -1], "split_conditions": [103.0, 47.0, 163.0, 29.0, 75.0, 133.0, 64.78953, 76.499565, 45.31304, 76.499565, 54.133564, 142.69627, 37.724804, -29.705843, -7.845638, -21.240755, -12.690005, -8.697557, -2.402884, 0.16475965, 9.31274, 17.347603, 27.400887], "split_indices": [1, 1, 1, 1, 1, 1, 0, 0, 0, 0, 0, 0, 0, 0, 0, 0, 0, 0, 0, 0, 0, 0, 0], "split_type": [0, 0, 0, 0, 0, 0, 0, 0, 0, 0, 0, 0, 0, 0, 0, 0, 0, 0, 0, 0, 0, 0, 0], "sum_hessian": [1601.0, 1199.0, 402.0, 708.0, 491.0, 243.0, 159.0, 502.0, 206.0, 266.0, 225.0, 140.0, 103.0, 494.0, 8.0, 127.0, 79.0, 171.0, 95.0, 46.0, 179.0, 112.0, 28.0], "tree_param": {"num_deleted": "0", "num_feature": "2", "num_nodes": "23", "size_leaf_vector": "1"}}, {"base_weights": [0.8792597, -49.16317, 46.69331, -65.49937, -21.247992, 22.361998, 87.507996, -70.55126, -38.25078, -26.386246, -2.3378308, 11.216627, 36.47591, 72.8163, 129.98903, -41.068172, -31.00652, -23.41772, -7.789228, -19.870432, -11.790476, -3.9942954, 2.3893406, -0.29878846, 8.95209, 12.287293, 22.546722, -0.8919871, 40.236958, 5.7252007, 71.97536], "categories": [], "categories_nodes": [], "categories_segments": [], "categories_sizes": [], "default_left": [0, 0, 0, 0, 0, 0, 0, 0, 0, 0, 0, 0, 0, 0, 0, 0, 0, 0, 0, 0, 0, 0, 0, 0, 0, 0, 0, 0, 0, 0, 0], "id": 18, "left_children": [1, 3, 5, 7, 9, 11, 13, 15, 17, 19, 21, 23, 25, 27, 29, -1, -1, -1, -1, -1, -1, -1, -1, -1, -1, -1, -1, -1, -1, -1, -1], "loss_changes": [3695303.0, 343808.62, 825006.25, 51970.75, 28078.016, 81854.375, 143861.75, 701.5, 5853.414, 6877.703, 2421.1443, 18279.715, 9960.719, 6859.125, 326.25, 0.0, 0.0, 0.0, 0.0, 0.0, 0.0, 0.0, 0.0, 0.0, 0.0, 0.0, 0.0, 0.0, 0.0, 0.0, 0.0], "parents": [2147483647, 0, 0, 1, 1, 2, 2, 3, 3, 4, 4, 5, 5, 6, 6, 7, 7, 8, 8, 9, 9, 10, 10, 11, 11, 12, 12, 13, 13, 14, 14], "right_children": [2, 4, 6, 8, 10, 12, 14, 16, 18, 20, 22, 24, 26, 28, 30, -1, -1, -1, -1, -1, -1, -1, -1, -1, -1, -1, -1, -1, -1, -1, -1], "split_conditions": [70.0, 35.0, 142.0, 51.104836, 103.328865, 108.0, 203.0, 15.0, 92.42257, 51.104836, 58.0, 86.63102, 102.65078, 59.143303, 93.708725, -41.068172, -31.00652, -23.41772, -7.789228, -19.870432, -11.790476, -3.9942954, 2.3893406, -0.29878846, 8.95209, 12.287293, 22.546722, -0.8919871, 40.236958, 5.7252007, 71.97536], "split_indices": [1, 1, 1, 0, 0, 1, 1, 1, 0, 0, 1, 0, 0, 0, 0, 0, 0, 0, 0, 0, 0, 0, 0, 0, 0, 0, 0, 0, 0, 0, 0], "split_type": [0, 0, 0, 0, 0, 0, 0, 0, 0, 0, 0, 0, 0, 0, 0, 0, 0, 0, 0, 0, 0, 0, 0, 0, 0, 0, 0, 0, 0, 0, 0], "sum_hessian": [1601.0, 765.0, 836.0, 478.0, 287.0, 529.0, 307.0, 396.0, 82.0, 224.0, 63.0, 301.0, 228.0, 239.0, 68.0, 289.0, 107.0, 66.0, 16.0, 64.0, 160.0, 36.0, 27.0, 92.0, 209.0, 63.0, 165.0, 1.0, 238.0, 1.0, 67.0], "tree_param": {"num_deleted": "0", "num_feature": "2", "num_nodes": "31", "size_leaf_vector": "1"}}, {"base_weights": [-0.8179294, -51.34234, 76.426186, -66.85427, -12.818507, 55.314194, 71.682495, -76.234436, -48.725006, -25.278378, 3.576842, 30.287933, 71.27486, -41.978275, -3.110332, -26.911943, 0.24123043, -14.538203, 0.16186477, -0.39984742, 12.681186, 11.911384, 22.679884, 25.765358, 41.64027], "categories": [], "categories_nodes": [], "categories_segments": [], "categories_sizes": [], "default_left": [0, 0, 0, 0, 0, 0, 0, 0, 0, 0, 0, 0, 0, 0, 0, 0, 0, 0, 0, 0, 0, 0, 0, 0, 0], "id": 19, "left_children": [1, 3, 5, 7, 9, 11, -1, 13, 15, 17, 19, 21, 23, -1, -1, -1, -1, -1, -1, -1, -1, -1, -1, -1, -1], "loss_changes": [6290507.5, 577653.25, 686467.0, 97858.25, 58995.168, 175038.88, 0.0, 501.75, 2659.5625, 4867.086, 10855.334, 13263.391, 11333.25, 0.0, 0.0, 0.0, 0.0, 0.0, 0.0, 0.0, 0.0, 0.0, 0.0, 0.0, 0.0], "parents": [2147483647, 0, 0, 1, 1, 2, 2, 3, 3, 4, 4, 5, 5, 7, 7, 8, 8, 9, 9, 10, 10, 11, 11, 12, 12], "right_children": [2, 4, 6, 8, 10, 12, -1, 14, 16, 18, 20, 22, 24, -1, -1, -1, -1, -1, -1, -1, -1, -1, -1, -1, -1], "split_conditions": [104.0, 54.0, 196.0, 27.0, 77.0, 139.0, 71.682495, 94.876686, 130.93881, 129.38542, 170.27538, 122.0, 132.36943, -41.978275, -3.110332, -26.911943, 0.24123043, -14.538203, 0.16186477, -0.39984742, 12.681186, 11.911384, 22.679884, 25.765358, 41.64027], "split_indices": [1, 1, 1, 1, 1, 1, 0, 0, 0, 0, 0, 1, 0, 0, 0, 0, 0, 0, 0, 0, 0, 0, 0, 0, 0], "split_type": [0, 0, 0, 0, 0, 0, 0, 0, 0, 0, 0, 0, 0, 0, 0, 0, 0, 0, 0, 0, 0, 0, 0, 0, 0], "sum_hessian": [1601.0, 969.0, 632.0, 688.0, 281.0, 462.0, 170.0, 442.0, 246.0, 158.0, 123.0, 186.0, 276.0, 441.0, 1.0, 245.0, 1.0, 151.0, 7.0, 105.0, 18.0, 113.0, 73.0, 52.0, 224.0], "tree_param": {"num_deleted": "0", "num_feature": "2", "num_nodes": "25", "size_leaf_vector": "1"}}, {"base_weights": [-2.9764695, -48.56375, 67.53862, -81.77165, -20.429293, 50.4103, 138.99371, -47.933758, -29.179558, -34.758503, 2.9120512, 32.761776, 73.73594, 93.82216, 85.453125, -23.756191, -8.160936, -2.04289, 21.851978, 10.997847, 24.76842, 34.207676, 51.611572, 52.494503, 1.8724196], "categories": [], "categories_nodes": [], "categories_segments": [], "categories_sizes": [], "default_left": [0, 0, 0, 0, 0, 0, 0, 0, 0, 0, 0, 0, 0, 0, 0, 0, 0, 0, 0, 0, 0, 0, 0, 0, 0], "id": 20, "left_children": [1, 3, 5, 7, 9, 11, 13, -1, -1, 15, 17, 19, 21, 23, -1, -1, -1, -1, -1, -1, -1, -1, -1, -1, -1], "loss_changes": [5184845.5, 906019.0, 737385.5, 44164.25, 180287.05, 200773.0, 9605.0, 0.0, 0.0, 52557.094, 51885.492, 42980.375, 19383.25, 4905.2188, 0.0, 0.0, 0.0, 0.0, 0.0, 0.0, 0.0, 0.0, 0.0, 0.0, 0.0], "parents": [2147483647, 0, 0, 1, 1, 2, 2, 3, 3, 4, 4, 5, 5, 6, 6, 9, 9, 10, 10, 11, 11, 12, 12, 13, 13], "right_children": [2, 4, 6, 8, 10, 12, 14, -1, -1, 16, 18, 20, 22, 24, -1, -1, -1, -1, -1, -1, -1, -1, -1, -1, -1], "split_conditions": [108.0, 34.0, 225.0, 47.947258, 91.59037, 157.0, 192.83304, -47.933758, -29.179558, 76.0, 159.79045, 127.84891, 192.83304, 191.30576, 85.453125, -23.756191, -8.160936, -2.04289, 21.851978, 10.997847, 24.76842, 34.207676, 51.611572, 52.494503, 1.8724196], "split_indices": [1, 1, 1, 0, 0, 1, 0, 0, 0, 1, 0, 0, 0, 0, 0, 0, 0, 0, 0, 0, 0, 0, 0, 0, 0], "split_type": [0, 0, 0, 0, 0, 0, 0, 0, 0, 0, 0, 0, 0, 0, 0, 0, 0, 0, 0, 0, 0, 0, 0, 0, 0], "sum_hessian": [1602.0, 974.0, 628.0, 442.0, 532.0, 514.0, 114.0, 363.0, 79.0, 328.0, 204.0, 300.0, 214.0, 40.0, 74.0, 226.0, 102.0, 177.0, 27.0, 154.0, 146.0, 150.0, 64.0, 39.0, 1.0], "tree_param": {"num_deleted": "0", "num_feature": "2", "num_nodes": "25", "size_leaf_vector": "1"}}, {"base_weights": [-0.62385124, -19.863676, 17.871437, -21.14694, -11.927284, 10.9351425, 39.82644, -11.649437, 0.13889591, -1.9557141, -13.771723, 5.6624694, 15.974147, 34.91358, 32.29788, -4.1483974, 1.624552, -8.373513, -1.8249964, 0.22437492, 4.888678, 6.4511995, 12.853025, 19.594563, 3.0716026], "categories": [], "categories_nodes": [], "categories_segments": [], "categories_sizes": [], "default_left": [0, 0, 0, 0, 0, 0, 0, 0, 0, 0, 0, 0, 0, 0, 0, 0, 0, 0, 0, 0, 0, 0, 0, 0, 0], "id": 21, "left_children": [1, 3, 5, 7, 9, 11, 13, -1, -1, 15, 17, 19, 21, 23, -1, -1, -1, -1, -1, -1, -1, -1, -1, -1, -1], "loss_changes": [573904.0, 6687.7812, 122888.59, 516.71875, 2105.7324, 16313.8125, 7069.2188, 0.0, 0.0, 816.9814, 1282.3926, 5360.747, 8577.0, 2446.5469, 0.0, 0.0, 0.0, 0.0, 0.0, 0.0, 0.0, 0.0, 0.0, 0.0, 0.0], "parents": [2147483647, 0, 0, 1, 1, 2, 2, 3, 3, 4, 4, 5, 5, 6, 6, 9, 9, 10, 10, 11, 11, 12, 12, 13, 13], "right_children": [2, 4, 6, 8, 10, 12, 14, -1, -1, 16, 18, 20, 22, 24, -1, -1, -1, -1, -1, -1, -1, -1, -1, -1, -1], "split_conditions": [12.0, 24.601542, 57.0, 10.0, 27.786968, 32.0, 103.0, -11.649437, 0.13889591, 26.805182, 46.47275, 24.39258, 33.779793, 100.0, 32.29788, -4.1483974, 1.624552, -8.373513, -1.8249964, 0.22437492, 4.888678, 6.4511995, 12.853025, 19.594563, 3.0716026], "split_indices": [1, 0, 1, 1, 0, 1, 1, 0, 0, 0, 0, 0, 0, 1, 0, 0, 0, 0, 0, 0, 0, 0, 0, 0, 0], "split_type": [0, 0, 0, 0, 0, 0, 0, 0, 0, 0, 0, 0, 0, 0, 0, 0, 0, 0, 0, 0, 0, 0, 0, 0, 0], "sum_hessian": [1602.0, 785.0, 817.0, 668.0, 117.0, 627.0, 190.0, 667.0, 1.0, 20.0, 97.0, 312.0, 315.0, 163.0, 27.0, 8.0, 12.0, 83.0, 14.0, 121.0, 191.0, 209.0, 106.0, 158.0, 5.0], "tree_param": {"num_deleted": "0", "num_feature": "2", "num_nodes": "25", "size_leaf_vector": "1"}}, {"base_weights": [-3.6905794, -50.370255, 88.893684, -66.79336, -16.551622, 51.59017, 138.25203, -41.90638, -55.77838, -27.557434, 0.32704437, 37.837532, 71.997444, 54.9556, 86.61308, -31.154552, -9.358716, -16.283669, -4.9968743, -1.7574207, 13.351346, 14.523274, 27.173843, 5.350697, 39.930267], "categories": [], "categories_nodes": [], "categories_segments": [], "categories_sizes": [], "default_left": [0, 0, 0, 0, 0, 0, 0, 0, 0, 0, 0, 0, 0, 0, 0, 0, 0, 0, 0, 0, 0, 0, 0, 0, 0], "id": 22, "left_children": [1, 3, 5, 7, 9, 11, 13, -1, 15, 17, 19, 21, 23, -1, -1, -1, -1, -1, -1, -1, -1, -1, -1, -1, -1], "loss_changes": [6966724.0, 589093.0, 956490.5, 51538.0, 66440.52, 74088.06, 84097.5, 0.0, 6594.5, 6739.0625, 12768.258, 19459.312, 744.75, 0.0, 0.0, 0.0, 0.0, 0.0, 0.0, 0.0, 0.0, 0.0, 0.0, 0.0, 0.0], "parents": [2147483647, 0, 0, 1, 1, 2, 2, 3, 3, 4, 4, 5, 5, 6, 6, 8, 8, 9, 9, 10, 10, 11, 11, 12, 12], "right_children": [2, 4, 6, 8, 10, 12, 14, -1, 16, 18, 20, 22, 24, -1, -1, -1, -1, -1, -1, -1, -1, -1, -1, -1, -1], "split_conditions": [102.0, 47.0, 182.0, 18.0, 76.0, 150.0, 215.0, -41.90638, 88.29046, 105.64487, 152.35072, 148.30054, 89.70815, 54.9556, 86.61308, -31.154552, -9.358716, -16.283669, -4.9968743, -1.7574207, 13.351346, 14.523274, 27.173843, 5.350697, 39.930267], "split_indices": [1, 1, 1, 1, 1, 1, 1, 0, 0, 0, 0, 0, 0, 0, 0, 0, 0, 0, 0, 0, 0, 0, 0, 0, 0], "split_type": [0, 0, 0, 0, 0, 0, 0, 0, 0, 0, 0, 0, 0, 0, 0, 0, 0, 0, 0, 0, 0, 0, 0, 0, 0], "sum_hessian": [1601.0, 1066.0, 535.0, 714.0, 352.0, 311.0, 224.0, 368.0, 346.0, 211.0, 141.0, 195.0, 116.0, 86.0, 138.0, 336.0, 10.0, 187.0, 24.0, 127.0, 14.0, 107.0, 88.0, 2.0, 114.0], "tree_param": {"num_deleted": "0", "num_feature": "2", "num_nodes": "25", "size_leaf_vector": "1"}}, {"base_weights": [1.2207206, -25.694948, 59.12336, -38.487938, -8.564937, 39.253345, 100.14415, -39.897854, -20.016254, -17.465994, 4.65051, 23.599007, 48.808002, 78.26816, 64.60892, -22.949362, -17.277884, -12.625046, -5.2555366, -11.62891, -2.3771462, -2.5266533, 5.811293, 4.069505, 14.750428, 8.815533, 27.86636, 43.505646, 6.2851605], "categories": [], "categories_nodes": [], "categories_segments": [], "categories_sizes": [], "default_left": [0, 0, 0, 0, 0, 0, 0, 0, 0, 0, 0, 0, 0, 0, 0, 0, 0, 0, 0, 0, 0, 0, 0, 0, 0, 0, 0, 0, 0], "id": 23, "left_children": [1, 3, 5, 7, 9, 11, 13, 15, 17, 19, 21, 23, 25, 27, -1, -1, -1, -1, -1, -1, -1, -1, -1, -1, -1, -1, -1, -1, -1], "loss_changes": [2511759.0, 239366.12, 395606.62, 12053.25, 56595.88, 46638.875, 12285.75, 1892.8125, 518.40234, 13350.086, 11002.281, 6460.7734, 8673.469, 40.8125, 0.0, 0.0, 0.0, 0.0, 0.0, 0.0, 0.0, 0.0, 0.0, 0.0, 0.0, 0.0, 0.0, 0.0, 0.0], "parents": [2147483647, 0, 0, 1, 1, 2, 2, 3, 3, 4, 4, 5, 5, 6, 6, 7, 7, 8, 8, 9, 9, 10, 10, 11, 11, 12, 12, 13, 13], "right_children": [2, 4, 6, 8, 10, 12, 14, 16, 18, 20, 22, 24, 26, 28, -1, -1, -1, -1, -1, -1, -1, -1, -1, -1, -1, -1, -1, -1, -1], "split_conditions": [57.0, 17.0, 117.0, 33.218464, 48.775864, 78.0, 153.0, 3.0, 58.763332, 42.0, 35.0, 38.88443, 32.162094, 99.02611, 64.60892, -22.949362, -17.277884, -12.625046, -5.2555366, -11.62891, -2.3771462, -2.5266533, 5.811293, 4.069505, 14.750428, 8.815533, 27.86636, 43.505646, 6.2851605], "split_indices": [1, 1, 1, 0, 0, 1, 1, 1, 0, 1, 1, 0, 0, 0, 0, 0, 0, 0, 0, 0, 0, 0, 0, 0, 0, 0, 0, 0, 0], "split_type": [0, 0, 0, 0, 0, 0, 0, 0, 0, 0, 0, 0, 0, 0, 0, 0, 0, 0, 0, 0, 0, 0, 0, 0, 0, 0, 0, 0, 0], "sum_hessian": [1601.0, 1095.0, 506.0, 623.0, 472.0, 348.0, 158.0, 573.0, 50.0, 281.0, 191.0, 139.0, 209.0, 83.0, 75.0, 454.0, 119.0, 34.0, 16.0, 217.0, 64.0, 75.0, 116.0, 26.0, 113.0, 14.0, 195.0, 81.0, 2.0], "tree_param": {"num_deleted": "0", "num_feature": "2", "num_nodes": "29", "size_leaf_vector": "1"}}, {"base_weights": [-0.3271097, -23.989666, 64.62807, -33.295547, -0.47014716, 33.03305, 92.04852, -37.318306, -24.50245, -5.3933983, 13.67818, 22.977468, 37.981308, 72.85239, 67.581276, -20.620085, -0.91238904, -14.859701, -5.5438695, 2.8264492, -4.7750783, 3.2357016, 11.293225, 13.573895, 1.440901, 21.189045, 2.8852298, 2.780517, 40.214966], "categories": [], "categories_nodes": [], "categories_segments": [], "categories_sizes": [], "default_left": [0, 0, 0, 0, 0, 0, 0, 0, 0, 0, 0, 0, 0, 0, 0, 0, 0, 0, 0, 0, 0, 0, 0, 0, 0, 0, 0, 0, 0], "id": 24, "left_children": [1, 3, 5, 7, 9, 11, 13, 15, 17, 19, 21, 23, 25, 27, -1, -1, -1, -1, -1, -1, -1, -1, -1, -1, -1, -1, -1, -1, -1], "loss_changes": [2477418.0, 258488.31, 356457.38, 25001.562, 24109.191, 5656.8125, 86224.625, 3178.0, 8737.406, 9121.711, 4124.7754, 2506.4805, 1249.6094, 767.4375, 0.0, 0.0, 0.0, 0.0, 0.0, 0.0, 0.0, 0.0, 0.0, 0.0, 0.0, 0.0, 0.0, 0.0, 0.0], "parents": [2147483647, 0, 0, 1, 1, 2, 2, 3, 3, 4, 4, 5, 5, 6, 6, 7, 7, 8, 8, 9, 9, 10, 10, 11, 11, 12, 12, 13, 13], "right_children": [2, 4, 6, 8, 10, 12, 14, 16, 18, 20, 22, 24, 26, 28, -1, -1, -1, -1, -1, -1, -1, -1, -1, -1, -1, -1, -1, -1, -1], "split_conditions": [57.0, 23.0, 100.0, 12.0, 60.832275, 70.0, 157.0, 58.960888, 42.617176, 4.241658, 42.0, 110.13407, 124.11195, 3.01374, 67.581276, -20.620085, -0.91238904, -14.859701, -5.5438695, 2.8264492, -4.7750783, 3.2357016, 11.293225, 13.573895, 1.440901, 21.189045, 2.8852298, 2.780517, 40.214966], "split_indices": [1, 1, 1, 1, 0, 1, 1, 0, 0, 0, 1, 0, 0, 0, 0, 0, 0, 0, 0, 0, 0, 0, 0, 0, 0, 0, 0, 0, 0], "split_type": [0, 0, 0, 0, 0, 0, 0, 0, 0, 0, 0, 0, 0, 0, 0, 0, 0, 0, 0, 0, 0, 0, 0, 0, 0, 0, 0, 0, 0], "sum_hessian": [1601.0, 1176.0, 425.0, 841.0, 335.0, 203.0, 222.0, 565.0, 276.0, 251.0, 84.0, 77.0, 126.0, 148.0, 74.0, 562.0, 3.0, 231.0, 45.0, 59.0, 192.0, 44.0, 40.0, 70.0, 7.0, 123.0, 3.0, 1.0, 147.0], "tree_param": {"num_deleted": "0", "num_feature": "2", "num_nodes": "29", "size_leaf_vector": "1"}}, {"base_weights": [1.6526672, -32.749134, 46.292637, -58.2867, -12.298896, 30.714481, 85.22643, -35.659027, -25.650883, -26.646637, -3.821807, 15.777265, 41.775265, 85.72811, -1.1432831, -16.997639, -11.009273, -6.989958, 1.9197664, 5.499402, 11.952836, -3.464409, 23.31868, 2.8957794, 47.29692], "categories": [], "categories_nodes": [], "categories_segments": [], "categories_sizes": [], "default_left": [0, 0, 0, 0, 0, 0, 0, 0, 0, 0, 0, 0, 0, 0, 0, 0, 0, 0, 0, 0, 0, 0, 0, 0, 0], "id": 25, "left_children": [1, 3, 5, 7, 9, 11, 13, -1, -1, 15, 17, 19, 21, 23, -1, -1, -1, -1, -1, -1, -1, -1, -1, -1, -1], "loss_changes": [2475127.5, 471584.88, 411275.38, 14440.875, 61771.78, 80602.56, 9608.25, 0.0, 0.0, 2006.3594, 21580.902, 6582.824, 10100.531, 1763.125, 0.0, 0.0, 0.0, 0.0, 0.0, 0.0, 0.0, 0.0, 0.0, 0.0, 0.0], "parents": [2147483647, 0, 0, 1, 1, 2, 2, 3, 3, 4, 4, 5, 5, 6, 6, 9, 9, 10, 10, 11, 11, 12, 12, 13, 13], "right_children": [2, 4, 6, 8, 10, 12, 14, -1, -1, 16, 18, 20, 22, 24, -1, -1, -1, -1, -1, -1, -1, -1, -1, -1, -1], "split_conditions": [80.0, 30.0, 147.0, 39.480335, 52.0, 102.0, 115.77232, -35.659027, -25.650883, 67.39457, 74.58499, 96.77954, 51.52177, 52.616444, -1.1432831, -16.997639, -11.009273, -6.989958, 1.9197664, 5.499402, 11.952836, -3.464409, 23.31868, 2.8957794, 47.29692], "split_indices": [1, 1, 1, 0, 1, 1, 0, 0, 0, 0, 0, 0, 0, 0, 0, 0, 0, 0, 0, 0, 0, 0, 0, 0, 0], "split_type": [0, 0, 0, 0, 0, 0, 0, 0, 0, 0, 0, 0, 0, 0, 0, 0, 0, 0, 0, 0, 0, 0, 0, 0, 0], "sum_hessian": [1601.0, 905.0, 696.0, 398.0, 507.0, 504.0, 192.0, 239.0, 159.0, 184.0, 323.0, 220.0, 284.0, 191.0, 1.0, 100.0, 84.0, 144.0, 179.0, 119.0, 101.0, 3.0, 281.0, 1.0, 190.0], "tree_param": {"num_deleted": "0", "num_feature": "2", "num_nodes": "25", "size_leaf_vector": "1"}}]}, "name": "gbtree"}, "learner_model_param": {"base_score": "7.77225E1", "boost_from_average": "1", "num_class": "0", "num_feature": "2", "num_target": "1"}, "objective": {"name": "reg:squarederror", "reg_loss_param": {"scale_pos_weight": "1"}}}, "version": [2, 0, 3]}']], tensor_type='model_weights')
